svm_type one_class
kernel_type rbf
gamma 0.25
nr_class 2
total_sv 200
rho 88.5565
SV
1 1:-0.91132 2:-0.931266 3:-0.928885 4:-0.833258 
1 1:-0.931266 2:-0.928885 3:-0.833258 4:-0.87975 
1 1:-0.928885 2:-0.833258 3:-0.87975 4:-0.927486 
0.5299765352375534 1:-0.927486 2:-0.864755 3:-0.798057 4:-0.908075 
1 1:-0.908075 2:-0.818848 3:-0.873236 4:-0.920368 
1 1:-0.818848 2:-0.873236 3:-0.920368 4:-0.963764 
1 1:-0.873236 2:-0.920368 3:-0.963764 4:-0.868957 
1 1:-0.920368 2:-0.963764 3:-0.868957 4:-0.924866 
1 1:-0.963764 2:-0.868957 3:-0.924866 4:-0.923663 
1 1:-0.868957 2:-0.924866 3:-0.923663 4:-0.889229 
1 1:-0.924866 2:-0.923663 3:-0.889229 4:-0.917458 
1 1:-0.923663 2:-0.889229 3:-0.917458 4:-0.901467 
1 1:-0.889229 2:-0.917458 3:-0.901467 4:-0.899822 
1 1:-0.917458 2:-0.901467 3:-0.899822 4:0.791985 
1 1:-0.901467 2:-0.899822 3:0.791985 4:0.889046 
1 1:-0.899822 2:0.791985 3:0.889046 4:0.900093 
1 1:0.838147 2:0.921882 3:0.846099 4:0.863173 
1 1:0.921882 2:0.846099 3:0.863173 4:0.808787 
1 1:0.861359 2:0.851616 3:0.800098 4:0.902126 
1 1:0.851616 2:0.800098 3:0.902126 4:0.976414 
1 1:0.800098 2:0.902126 3:0.976414 4:0.851978 
1 1:0.902126 2:0.976414 3:0.851978 4:0.896485 
1 1:0.976414 2:0.851978 3:0.896485 4:0.799607 
1 1:0.851978 2:0.896485 3:0.799607 4:0.877749 
1 1:0.896485 2:0.799607 3:0.877749 4:-0.953154 
1 1:0.799607 2:0.877749 3:-0.953154 4:-0.872713 
1 1:0.877749 2:-0.953154 3:-0.872713 4:-0.831778 
1 1:-0.916848 2:-0.876573 3:-0.873328 4:-1 
1 1:-0.876573 2:-0.873328 3:-1 4:-0.912724 
1 1:-0.873328 2:-1 3:-0.912724 4:-0.886476 
1 1:-1 2:-0.912724 3:-0.886476 4:-0.83629 
1 1:-0.881241 2:-0.80883 3:-0.855696 4:0.849203 
1 1:-0.80883 2:-0.855696 3:0.849203 4:0.85183 
1 1:-0.855696 2:0.849203 3:0.85183 4:0.833165 
1 1:0.833165 2:0.823327 3:0.887542 4:0.888524 
1 1:0.887542 2:0.888524 3:0.792547 4:0.875766 
1 1:0.888524 2:0.792547 3:0.875766 4:0.908611 
1 1:0.792547 2:0.875766 3:0.908611 4:0.868067 
1 1:0.875766 2:0.908611 3:0.868067 4:0.834338 
1 1:0.908611 2:0.868067 3:0.834338 4:0.835032 
1 1:0.875018 2:0.852249 3:0.809262 4:0.875818 
1 1:0.852249 2:0.809262 3:0.875818 4:-0.883999 
1 1:0.809262 2:0.875818 3:-0.883999 4:-0.9406 
1 1:0.875818 2:-0.883999 3:-0.9406 4:-0.859625 
1 1:-0.944175 2:-0.866576 3:-0.82486 4:-0.966983 
1 1:-0.866576 2:-0.82486 3:-0.966983 4:-0.889219 
1 1:-0.82486 2:-0.966983 3:-0.889219 4:-0.93875 
1 1:-0.966983 2:-0.889219 3:-0.93875 4:-0.874838 
1 1:-0.889219 2:-0.93875 3:-0.874838 4:-0.864345 
1 1:-0.845724 2:-0.884496 3:-0.904003 4:-0.940733 
1 1:-0.884496 2:-0.904003 3:-0.940733 4:-0.896418 
1 1:-0.896418 2:-0.786405 3:-0.87079 4:0.919611 
1 1:-0.786405 2:-0.87079 3:0.919611 4:1 
1 1:-0.87079 2:0.919611 3:1 4:0.901327 
1 1:0.919611 2:1 3:0.901327 4:0.841 
1 1:1 2:0.901327 3:0.841 4:0.891376 
1 1:0.901327 2:0.841 3:0.891376 4:0.785207 
1 1:0.823352 2:0.878608 3:0.87423 4:0.889686 
1 1:0.878608 2:0.87423 3:0.889686 4:0.876008 
1 1:0.87423 2:0.889686 3:0.876008 4:0.874651 
1 1:0.889686 2:0.876008 3:0.874651 4:0.830396 
1 1:0.876008 2:0.874651 3:0.830396 4:0.857938 
1 1:0.874651 2:0.830396 3:0.857938 4:0.905186 
1 1:0.830396 2:0.857938 3:0.905186 4:-0.81883 
1 1:0.857938 2:0.905186 3:-0.81883 4:-0.917603 
1 1:0.905186 2:-0.81883 3:-0.917603 4:-0.937428 
1 1:-0.81883 2:-0.917603 3:-0.937428 4:-0.906526 
1 1:-0.779122 2:-0.804917 3:-0.912312 4:-0.992865 
1 1:-0.804917 2:-0.912312 3:-0.992865 4:-0.894886 
1 1:-0.912312 2:-0.992865 3:-0.894886 4:-0.841914 
1 1:-0.992865 2:-0.894886 3:-0.841914 4:-0.888879 
1 1:-0.888879 2:-0.90148 3:-0.856036 4:-0.919156 
1 1:-0.919156 2:-0.834194 3:-0.897087 4:-0.925836 
1 1:-0.897087 2:-0.925836 3:-0.857103 4:-0.884388 
1 1:-0.857103 2:-0.884388 3:-0.873471 4:0.889529 
1 1:-0.884388 2:-0.873471 3:0.889529 4:0.837553 
1 1:-0.873471 2:0.889529 3:0.837553 4:0.859752 
1 1:0.859752 2:0.786041 3:0.884114 4:0.880883 
1 1:0.884114 2:0.880883 3:0.826252 4:0.847005 
1 1:0.880883 2:0.826252 3:0.847005 4:0.903542 
1 1:0.826252 2:0.847005 3:0.903542 4:0.872506 
1 1:0.847005 2:0.903542 3:0.872506 4:0.874166 
1 1:0.903542 2:0.872506 3:0.874166 4:0.80595 
1 1:0.872506 2:0.874166 3:0.80595 4:0.887362 
1 1:0.80595 2:0.887362 3:0.826502 4:0.905535 
1 1:0.845656 2:0.788992 3:0.789106 4:-0.862576 
1 1:0.788992 2:0.789106 3:-0.862576 4:-0.877025 
1 1:0.789106 2:-0.862576 3:-0.877025 4:-0.995016 
1 1:-0.862576 2:-0.877025 3:-0.995016 4:-0.832276 
1 1:-0.877025 2:-0.995016 3:-0.832276 4:-0.90656 
1 1:-0.995016 2:-0.832276 3:-0.90656 4:-0.936244 
1 1:-0.90656 2:-0.936244 3:-0.860381 4:-0.885595 
1 1:-0.850788 2:-0.904264 3:-0.912608 4:-0.905381 
1 1:-0.904264 2:-0.912608 3:-0.905381 4:-0.89276 
1 1:-0.912608 2:-0.905381 3:-0.89276 4:-0.868253 
1 1:-0.89276 2:-0.868253 3:-0.88536 4:-0.954973 
1 1:-0.868253 2:-0.88536 3:-0.954973 4:-0.888779 
1 1:-0.88536 2:-0.954973 3:-0.888779 4:-0.947077 
1 1:-0.954973 2:-0.888779 3:-0.947077 4:-0.844733 
1 1:-0.888779 2:-0.947077 3:-0.844733 4:0.917687 
1 1:-0.947077 2:-0.844733 3:0.917687 4:0.897398 
1 1:-0.844733 2:0.917687 3:0.897398 4:0.83772 
1 1:0.917687 2:0.897398 3:0.83772 4:0.893409 
1 1:0.857068 2:0.778687 3:0.880534 4:-0.933268 
1 1:0.778687 2:0.880534 3:-0.933268 4:-0.860718 
1 1:0.880534 2:-0.933268 3:-0.860718 4:-0.875553 
1 1:-0.933268 2:-0.860718 3:-0.875553 4:-0.932737 
1 1:-0.860718 2:-0.875553 3:-0.932737 4:-0.922891 
1 1:-0.932737 2:-0.922891 3:-0.827076 4:-0.876235 
1 1:-0.9371 2:-0.875176 3:-0.845941 4:-0.926583 
1 1:-0.875176 2:-0.845941 3:-0.926583 4:-0.972774 
1 1:-0.845941 2:-0.926583 3:-0.972774 4:-0.91199 
1 1:-0.926583 2:-0.972774 3:-0.91199 4:-0.848832 
1 1:-0.972774 2:-0.91199 3:-0.848832 4:-0.891915 
1 1:-0.891915 2:-0.847007 3:-0.812513 4:0.921179 
1 1:-0.847007 2:-0.812513 3:0.921179 4:0.910138 
1 1:-0.812513 2:0.921179 3:0.910138 4:0.861524 
1 1:0.921179 2:0.910138 3:0.861524 4:0.917435 
1 1:0.910138 2:0.861524 3:0.917435 4:0.855264 
1 1:0.861524 2:0.917435 3:0.855264 4:0.867557 
1 1:0.917435 2:0.855264 3:0.867557 4:0.908009 
1 1:0.855264 2:0.867557 3:0.908009 4:0.872058 
1 1:0.867557 2:0.908009 3:0.872058 4:0.861413 
1 1:0.908009 2:0.872058 3:0.861413 4:0.859885 
1 1:0.788968 2:0.824597 3:0.907447 4:0.912935 
1 1:0.824597 2:0.907447 3:0.912935 4:0.863929 
1 1:0.907447 2:0.912935 3:0.863929 4:0.809998 
1 1:0.911205 2:0.817862 3:0.852557 4:-0.856699 
1 1:0.817862 2:0.852557 3:-0.856699 4:-0.81814 
1 1:0.852557 2:-0.856699 3:-0.81814 4:-0.894258 
1 1:-0.894258 2:-0.835578 3:-0.849519 4:-0.934036 
0.5854488622458909 1:-0.849519 2:-0.934036 3:-0.806969 4:-0.926768 
1 1:-0.789178 2:-0.867597 3:-0.955095 4:-0.98612 
1 1:-0.867597 2:-0.955095 3:-0.98612 4:-0.9039 
1 1:-0.955095 2:-0.98612 3:-0.9039 4:-0.863156 
1 1:-0.98612 2:-0.9039 3:-0.863156 4:-0.903312 
0.4669222356512231 1:-0.9039 2:-0.863156 3:-0.903312 4:-0.882831 
1 1:-0.8967 2:-0.851339 3:-0.877385 4:0.807036 
1 1:-0.851339 2:-0.877385 3:0.807036 4:0.715291 
1 1:-0.877385 2:0.807036 3:0.715291 4:0.771896 
1 1:0.906863 2:0.795222 3:0.89198 4:0.911477 
1 1:0.89198 2:0.911477 3:0.823298 4:0.823207 
0.4176523668653327 1:0.809218 2:0.815744 3:0.830498 4:0.938272 
1 1:0.815744 2:0.830498 3:0.938272 4:0.86062 
1 1:0.830498 2:0.938272 3:0.86062 4:0.855265 
1 1:0.938272 2:0.86062 3:0.855265 4:0.914804 
1 1:0.86062 2:0.855265 3:0.914804 4:0.883932 
1 1:0.855265 2:0.914804 3:0.883932 4:0.907367 
1 1:0.914804 2:0.883932 3:0.907367 4:-0.949446 
1 1:0.883932 2:0.907367 3:-0.949446 4:-0.898741 
1 1:0.907367 2:-0.949446 3:-0.898741 4:-0.836215 
1 1:-0.949446 2:-0.898741 3:-0.836215 4:-0.865831 
1 1:-0.848312 2:-0.939245 3:-0.799165 4:0.87276 
1 1:-0.939245 2:-0.799165 3:0.87276 4:0.860564 
1 1:-0.799165 2:0.87276 3:0.860564 4:0.799571 
1 1:0.835497 2:0.880804 3:0.818919 4:0.92253 
1 1:0.880804 2:0.818919 3:0.92253 4:0.85218 
1 1:0.818919 2:0.92253 3:0.85218 4:0.852192 
1 1:0.92253 2:0.85218 3:0.852192 4:0.775473 
1 1:0.889488 2:0.830941 3:0.907151 4:0.797352 
1 1:0.907151 2:0.797352 3:0.801238 4:0.883786 
1 1:0.801238 2:0.883786 3:0.809871 4:-0.894164 
1 1:0.883786 2:0.809871 3:-0.894164 4:-0.954396 
1 1:0.809871 2:-0.894164 3:-0.954396 4:-0.85995 
1 1:-0.894164 2:-0.954396 3:-0.85995 4:-0.956019 
1 1:-0.954396 2:-0.85995 3:-0.956019 4:-0.84459 
1 1:-0.956019 2:-0.84459 3:-0.87228 4:-0.876346 
1 1:-0.921957 2:-0.890346 3:-0.847046 4:-0.926391 
1 1:-0.847046 2:-0.926391 3:-0.832966 4:0.8146 
1 1:-0.926391 2:-0.832966 3:0.8146 4:0.867802 
1 1:-0.832966 2:0.8146 3:0.867802 4:0.900111 
1 1:0.8146 2:0.867802 3:0.900111 4:0.917256 
1 1:0.867802 2:0.900111 3:0.917256 4:0.812301 
1 1:0.900111 2:0.917256 3:0.812301 4:0.847445 
1 1:0.917256 2:0.812301 3:0.847445 4:0.876677 
1 1:0.812301 2:0.847445 3:0.876677 4:0.905142 
1 1:0.801326 2:0.92645 3:0.800605 4:0.914325 
1 1:0.92645 2:0.800605 3:0.914325 4:0.840063 
1 1:0.914325 2:0.840063 3:0.81031 4:0.859078 
1 1:0.840063 2:0.81031 3:0.859078 4:0.904258 
1 1:0.859078 2:0.904258 3:0.821157 4:-0.82904 
1 1:0.904258 2:0.821157 3:-0.82904 4:-0.960653 
1 1:0.821157 2:-0.82904 3:-0.960653 4:-0.944738 
1 1:-0.82904 2:-0.960653 3:-0.944738 4:-0.899045 
1 1:-0.960653 2:-0.944738 3:-0.899045 4:-0.87551 
1 1:-0.944738 2:-0.899045 3:-0.87551 4:-0.8758 
1 1:-0.8758 2:-0.738279 3:-0.940852 4:-0.92832 
1 1:-0.940852 2:-0.92832 3:-0.876679 4:-0.85038 
1 1:-0.92832 2:-0.876679 3:-0.85038 4:-0.900724 
1 1:-0.900724 2:-0.820908 3:-0.937863 4:-0.889211 
1 1:-0.937863 2:-0.889211 3:-0.830109 4:-0.874091 
1 1:-0.874091 2:-0.863146 3:-0.951004 4:-0.932794 
1 1:-0.863146 2:-0.951004 3:-0.932794 4:0.765357 
1 1:-0.951004 2:-0.932794 3:0.765357 4:0.849152 
1 1:-0.932794 2:0.765357 3:0.849152 4:0.864738 
1 1:0.850815 2:0.86508 3:0.863601 4:0.879172 
1 1:0.863601 2:0.879172 3:0.826999 4:0.869363 
1 1:0.869363 2:0.835972 3:0.870764 4:0.860672 
1 1:0.870764 2:0.860672 3:0.826459 4:0.874707 
1 1:0.860672 2:0.826459 3:0.874707 4:0.869897 
